{
  "name": "libopencv_objdetect.so.405",
  "package": "lib32-libopencv-objdetect405",
  "needed": [
    "libc.so.6",
    "libgcc_s.so.1",
    "libm.so.6",
    "libopencv_calib3d.so.405",
    "libopencv_core.so.405",
    "libopencv_dnn.so.405",
    "libopencv_imgproc.so.405",
    "libstdc++.so.6"
  ],
  "symbols": [
    "_ZN2cv11clipObjectsENS_5Size_IiEERSt6vectorINS_5Rect_IiEESaIS4_EEPS2_IiSaIiEEPS2_IdSaIdEE",
    "_ZN2cv12LBPEvaluator10OptFeature10setOffsetsERKNS0_7FeatureEi",
    "_ZN2cv12LBPEvaluator15computeChannelsEiRKNS_11_InputArrayE",
    "_ZN2cv12LBPEvaluator18computeOptFeaturesEv",
    "_ZN2cv12LBPEvaluator4readERKNS_8FileNodeENS_5Size_IiEE",
    "_ZN2cv12LBPEvaluator7Feature4readERKNS_8FileNodeERKNS_5Size_IiEE",
    "_ZN2cv12LBPEvaluator9setWindowENS_6Point_IiEEi",
    "_ZN2cv12LBPEvaluatorC1Ev",
    "_ZN2cv12LBPEvaluatorC2Ev",
    "_ZN2cv12LBPEvaluatorD0Ev",
    "_ZN2cv12LBPEvaluatorD1Ev",
    "_ZN2cv12LBPEvaluatorD2Ev",
    "_ZN2cv13HOGDescriptor14setSVMDetectorERKNS_11_InputArrayE",
    "_ZN2cv13HOGDescriptor24getDaimlerPeopleDetectorEv",
    "_ZN2cv13HOGDescriptor24getDefaultPeopleDetectorEv",
    "_ZN2cv13HOGDescriptor4loadERKNSt7__cxx1112basic_stringIcSt11char_traitsIcESaIcEEES8_",
    "_ZN2cv13HOGDescriptor4readERNS_8FileNodeE",
    "_ZN2cv13HaarEvaluator10OptFeature10setOffsetsERKNS0_7FeatureEii",
    "_ZN2cv13HaarEvaluator15computeChannelsEiRKNS_11_InputArrayE",
    "_ZN2cv13HaarEvaluator18computeOptFeaturesEv",
    "_ZN2cv13HaarEvaluator4readERKNS_8FileNodeENS_5Size_IiEE",
    "_ZN2cv13HaarEvaluator7Feature4readERKNS_8FileNodeERKNS_5Size_IiEE",
    "_ZN2cv13HaarEvaluator9setWindowENS_6Point_IiEEi",
    "_ZN2cv13HaarEvaluatorC1Ev",
    "_ZN2cv13HaarEvaluatorC2Ev",
    "_ZN2cv13HaarEvaluatorD0Ev",
    "_ZN2cv13HaarEvaluatorD1Ev",
    "_ZN2cv13HaarEvaluatorD2Ev",
    "_ZN2cv13QRCodeEncoder6ParamsC1Ev",
    "_ZN2cv13QRCodeEncoder6ParamsC2Ev",
    "_ZN2cv13QRCodeEncoder6createERKNS0_6ParamsE",
    "_ZN2cv13QRCodeEncoderC1Ev",
    "_ZN2cv13QRCodeEncoderC2Ev",
    "_ZN2cv13QRCodeEncoderD0Ev",
    "_ZN2cv13QRCodeEncoderD1Ev",
    "_ZN2cv13QRCodeEncoderD2Ev",
    "_ZN2cv13QRDetectMulti11checkPointsESt6vectorINS_6Point_IfEESaIS3_EE",
    "_ZN2cv13QRDetectMulti12localizationEv",
    "_ZN2cv13QRDetectMulti14fixationPointsERSt6vectorINS_6Point_IfEESaIS3_EE",
    "_ZN2cv13QRDetectMulti16deleteUsedPointsERSt6vectorIS1_INS_6Point_IfEESaIS3_EESaIS5_EES8_RS5_",
    "_ZN2cv13QRDetectMulti18findQRCodeContoursERSt6vectorINS_6Point_IfEESaIS3_EERS1_IS5_SaIS5_EERKi",
    "_ZN2cv13QRDetectMulti25checkPointsInsideTriangleERKSt6vectorINS_6Point_IfEESaIS3_EE",
    "_ZN2cv13QRDetectMulti27checkPointsInsideQuadrangleERKSt6vectorINS_6Point_IfEESaIS3_EE",
    "_ZN2cv13QRDetectMulti27computeTransformationPointsEj",
    "_ZN2cv13QRDetectMulti28findNumberLocalizationPointsERSt6vectorINS_6Point_IfEESaIS3_EE",
    "_ZN2cv13QRDetectMulti4initERKNS_3MatEdd",
    "_ZN2cv13QRDetectMulti9checkSetsERSt6vectorIS1_INS_6Point_IfEESaIS3_EESaIS5_EES8_RS5_",
    "_ZN2cv14FaceDetectorYN6createERKNSt7__cxx1112basic_stringIcSt11char_traitsIcESaIcEEES8_RKNS_5Size_IiEEffiii",
    "_ZN2cv14QRCodeDetector12decodeCurvedB5cxx11ERKNS_11_InputArrayES3_RKNS_12_OutputArrayE",
    "_ZN2cv14QRCodeDetector15detectAndDecodeB5cxx11ERKNS_11_InputArrayERKNS_12_OutputArrayES6_",
    "_ZN2cv14QRCodeDetector21detectAndDecodeCurvedB5cxx11ERKNS_11_InputArrayERKNS_12_OutputArrayES6_",
    "_ZN2cv14QRCodeDetector6decodeB5cxx11ERKNS_11_InputArrayES3_RKNS_12_OutputArrayE",
    "_ZN2cv14QRCodeDetector7setEpsXEd",
    "_ZN2cv14QRCodeDetector7setEpsYEd",
    "_ZN2cv14QRCodeDetectorC1Ev",
    "_ZN2cv14QRCodeDetectorC2Ev",
    "_ZN2cv14QRCodeDetectorD1Ev",
    "_ZN2cv14QRCodeDetectorD2Ev",
    "_ZN2cv15groupRectanglesERSt6vectorINS_5Rect_IiEESaIS2_EERS0_IiSaIiEERS0_IdSaIdEEid",
    "_ZN2cv15groupRectanglesERSt6vectorINS_5Rect_IiEESaIS2_EERS0_IiSaIiEEid",
    "_ZN2cv15groupRectanglesERSt6vectorINS_5Rect_IiEESaIS2_EEid",
    "_ZN2cv15groupRectanglesERSt6vectorINS_5Rect_IiEESaIS2_EEidPS0_IiSaIiEEPS0_IdSaIdEE",
    "_ZN2cv16FaceRecognizerSF6createERKNSt7__cxx1112basic_stringIcSt11char_traitsIcESaIcEEES8_ii",
    "_ZN2cv16FeatureEvaluator15updateScaleDataENS_5Size_IiEERKSt6vectorIfSaIfEE",
    "_ZN2cv16FeatureEvaluator4readERKNS_8FileNodeENS_5Size_IiEE",
    "_ZN2cv16FeatureEvaluator6createEi",
    "_ZN2cv16FeatureEvaluator7getMatsEv",
    "_ZN2cv16FeatureEvaluator8getUMatsERSt6vectorINS_4UMatESaIS2_EE",
    "_ZN2cv16FeatureEvaluator8setImageERKNS_11_InputArrayERKSt6vectorIfSaIfEE",
    "_ZN2cv16FeatureEvaluator9setWindowENS_6Point_IiEEi",
    "_ZN2cv16FeatureEvaluatorD0Ev",
    "_ZN2cv16FeatureEvaluatorD1Ev",
    "_ZN2cv16FeatureEvaluatorD2Ev",
    "_ZN2cv17CascadeClassifier13getOldCascadeEv",
    "_ZN2cv17CascadeClassifier16detectMultiScaleERKNS_11_InputArrayERSt6vectorINS_5Rect_IiEESaIS6_EERS4_IiSaIiEERS4_IdSaIdEEdiiNS_5Size_IiEESH_b",
    "_ZN2cv17CascadeClassifier16detectMultiScaleERKNS_11_InputArrayERSt6vectorINS_5Rect_IiEESaIS6_EERS4_IiSaIiEEdiiNS_5Size_IiEESE_",
    "_ZN2cv17CascadeClassifier16detectMultiScaleERKNS_11_InputArrayERSt6vectorINS_5Rect_IiEESaIS6_EEdiiNS_5Size_IiEESB_",
    "_ZN2cv17CascadeClassifier16getMaskGeneratorEv",
    "_ZN2cv17CascadeClassifier16setMaskGeneratorERKNS_3PtrINS_21BaseCascadeClassifier13MaskGeneratorEEE",
    "_ZN2cv17CascadeClassifier4loadERKNSt7__cxx1112basic_stringIcSt11char_traitsIcESaIcEEE",
    "_ZN2cv17CascadeClassifier4readERKNS_8FileNodeE",
    "_ZN2cv17CascadeClassifier7convertERKNSt7__cxx1112basic_stringIcSt11char_traitsIcESaIcEEES8_",
    "_ZN2cv17CascadeClassifierC1ERKNSt7__cxx1112basic_stringIcSt11char_traitsIcESaIcEEE",
    "_ZN2cv17CascadeClassifierC1Ev",
    "_ZN2cv17CascadeClassifierC2ERKNSt7__cxx1112basic_stringIcSt11char_traitsIcESaIcEEE",
    "_ZN2cv17CascadeClassifierC2Ev",
    "_ZN2cv17CascadeClassifierD1Ev",
    "_ZN2cv17CascadeClassifierD2Ev",
    "_ZN2cv17QRCodeEncoderImpl10encodeAutoERKNSt7__cxx1112basic_stringIcSt11char_traitsIcESaIcEEERSt6vectorIhSaIhEE",
    "_ZN2cv17QRCodeEncoderImpl10encodeByteERKNSt7__cxx1112basic_stringIcSt11char_traitsIcESaIcEEERSt6vectorIhSaIhEE",
    "_ZN2cv17QRCodeEncoderImpl10generateQRERKNSt7__cxx1112basic_stringIcSt11char_traitsIcESaIcEEE",
    "_ZN2cv17QRCodeEncoderImpl11eccGenerateERSt6vectorIS1_IhSaIhEESaIS3_EES6_",
    "_ZN2cv17QRCodeEncoderImpl11encodeAlphaERKNSt7__cxx1112basic_stringIcSt11char_traitsIcESaIcEEERSt6vectorIhSaIhEE",
    "_ZN2cv17QRCodeEncoderImpl11encodeKanjiERKNSt7__cxx1112basic_stringIcSt11char_traitsIcESaIcEEERSt6vectorIhSaIhEE",
    "_ZN2cv17QRCodeEncoderImpl11versionAutoERKNSt7__cxx1112basic_stringIcSt11char_traitsIcESaIcEEE",
    "_ZN2cv17QRCodeEncoderImpl12fillReservedERKSt6vectorIhSaIhEERNS_3MatE",
    "_ZN2cv17QRCodeEncoderImpl12padBitStreamEv",
    "_ZN2cv17QRCodeEncoderImpl12stringToBitsERKNSt7__cxx1112basic_stringIcSt11char_traitsIcESaIcEEE",
    "_ZN2cv17QRCodeEncoderImpl13encodeNumericERKNSt7__cxx1112basic_stringIcSt11char_traitsIcESaIcEEERSt6vectorIhSaIhEE",
    "_ZN2cv17QRCodeEncoderImpl14eccLevelToCodeENS_13QRCodeEncoder15CorrectionLevelE",
    "_ZN2cv17QRCodeEncoderImpl14formatGenerateEiRSt6vectorIhSaIhEE",
    "_ZN2cv17QRCodeEncoderImpl14isAlphaNumericERKNSt7__cxx1112basic_stringIcSt11char_traitsIcESaIcEEE",
    "_ZN2cv17QRCodeEncoderImpl15encodeStructureERKNSt7__cxx1112basic_stringIcSt11char_traitsIcESaIcEEERSt6vectorIhSaIhEE",
    "_ZN2cv17QRCodeEncoderImpl15estimateVersionEiRSt6vectorIiSaIiEE",
    "_ZN2cv17QRCodeEncoderImpl15rearrangeBlocksERKSt6vectorIS1_IhSaIhEESaIS3_EES7_",
    "_ZN2cv17QRCodeEncoderImpl16findAutoMaskTypeEv",
    "_ZN2cv17QRCodeEncoderImpl17generatingProcessERKNSt7__cxx1112basic_stringIcSt11char_traitsIcESaIcEEERNS_3MatE",
    "_ZN2cv17QRCodeEncoderImpl17writeReservedAreaEv",
    "_ZN2cv17QRCodeEncoderImpl19findVersionCapacityEiiii",
    "_ZN2cv17QRCodeEncoderImpl19versionInfoGenerateEiRSt6vectorIhSaIhEE",
    "_ZN2cv17QRCodeEncoderImpl21structureFinalMessageEv",
    "_ZN2cv17QRCodeEncoderImpl22encodeStructuredAppendERKNSt7__cxx1112basic_stringIcSt11char_traitsIcESaIcEEERKNS_12_OutputArrayE",
    "_ZN2cv17QRCodeEncoderImpl6encodeERKNSt7__cxx1112basic_stringIcSt11char_traitsIcESaIcEEERKNS_12_OutputArrayE",
    "_ZN2cv17QRCodeEncoderImpl8maskDataEiRNS_3MatE",
    "_ZN2cv17QRCodeEncoderImpl8writeBitEiib",
    "_ZN2cv17QRCodeEncoderImpl9encodeECIERKNSt7__cxx1112basic_stringIcSt11char_traitsIcESaIcEEERSt6vectorIhSaIhEE",
    "_ZN2cv17QRCodeEncoderImpl9isNumericERKNSt7__cxx1112basic_stringIcSt11char_traitsIcESaIcEEE",
    "_ZN2cv17QRCodeEncoderImpl9writeDataEv",
    "_ZN2cv21BaseCascadeClassifierD0Ev",
    "_ZN2cv21BaseCascadeClassifierD1Ev",
    "_ZN2cv21BaseCascadeClassifierD2Ev",
    "_ZN2cv21CascadeClassifierImpl13getOldCascadeEv",
    "_ZN2cv21CascadeClassifierImpl16detectMultiScaleERKNS_11_InputArrayERSt6vectorINS_5Rect_IiEESaIS6_EERS4_IiSaIiEERS4_IdSaIdEEdiiNS_5Size_IiEESH_b",
    "_ZN2cv21CascadeClassifierImpl16detectMultiScaleERKNS_11_InputArrayERSt6vectorINS_5Rect_IiEESaIS6_EERS4_IiSaIiEEdiiNS_5Size_IiEESE_",
    "_ZN2cv21CascadeClassifierImpl16detectMultiScaleERKNS_11_InputArrayERSt6vectorINS_5Rect_IiEESaIS6_EEdiiNS_5Size_IiEESB_",
    "_ZN2cv21CascadeClassifierImpl16getMaskGeneratorEv",
    "_ZN2cv21CascadeClassifierImpl16setMaskGeneratorERKNS_3PtrINS_21BaseCascadeClassifier13MaskGeneratorEEE",
    "_ZN2cv21CascadeClassifierImpl26detectMultiScaleNoGroupingERKNS_11_InputArrayERSt6vectorINS_5Rect_IiEESaIS6_EERS4_IiSaIiEERS4_IdSaIdEEdNS_5Size_IiEESH_b",
    "_ZN2cv21CascadeClassifierImpl30ocl_detectMultiScaleNoGroupingERKSt6vectorIfSaIfEERS1_INS_5Rect_IiEESaIS7_EE",
    "_ZN2cv21CascadeClassifierImpl4Data4readERKNS_8FileNodeE",
    "_ZN2cv21CascadeClassifierImpl4DataC1Ev",
    "_ZN2cv21CascadeClassifierImpl4DataC2Ev",
    "_ZN2cv21CascadeClassifierImpl4loadERKNSt7__cxx1112basic_stringIcSt11char_traitsIcESaIcEEE",
    "_ZN2cv21CascadeClassifierImpl4readERKNS_8FileNodeE",
    "_ZN2cv21CascadeClassifierImpl5read_ERKNS_8FileNodeE",
    "_ZN2cv21CascadeClassifierImpl5runAtERNS_3PtrINS_16FeatureEvaluatorEEENS_6Point_IiEEiRd",
    "_ZN2cv21CascadeClassifierImplC1Ev",
    "_ZN2cv21CascadeClassifierImplC2Ev",
    "_ZN2cv21CascadeClassifierImplD0Ev",
    "_ZN2cv21CascadeClassifierImplD1Ev",
    "_ZN2cv21CascadeClassifierImplD2Ev",
    "_ZN2cv21DetectionBasedTracker10ParametersC1Ev",
    "_ZN2cv21DetectionBasedTracker10ParametersC2Ev",
    "_ZN2cv21DetectionBasedTracker13resetTrackingEv",
    "_ZN2cv21DetectionBasedTracker13setParametersERKNS0_10ParametersE",
    "_ZN2cv21DetectionBasedTracker14detectInRegionERKNS_3MatERKNS_5Rect_IiEERSt6vectorIS5_SaIS5_EE",
    "_ZN2cv21DetectionBasedTracker15InnerParametersC1Ev",
    "_ZN2cv21DetectionBasedTracker15InnerParametersC2Ev",
    "_ZN2cv21DetectionBasedTracker20updateTrackedObjectsERKSt6vectorINS_5Rect_IiEESaIS3_EE",
    "_ZN2cv21DetectionBasedTracker21SeparateDetectionWork13resetTrackingEv",
    "_ZN2cv21DetectionBasedTracker21SeparateDetectionWork23workcycleObjectDetectorEv",
    "_ZN2cv21DetectionBasedTracker21SeparateDetectionWork30communicateWithDetectingThreadERKNS_3MatERSt6vectorINS_5Rect_IiEESaIS7_EE",
    "_ZN2cv21DetectionBasedTracker21SeparateDetectionWork3runEv",
    "_ZN2cv21DetectionBasedTracker21SeparateDetectionWork4stopEv",
    "_ZN2cv21DetectionBasedTracker21SeparateDetectionWorkC1ERS0_NS_3PtrINS0_9IDetectorEEERKNS0_10ParametersE",
    "_ZN2cv21DetectionBasedTracker21SeparateDetectionWorkC2ERS0_NS_3PtrINS0_9IDetectorEEERKNS0_10ParametersE",
    "_ZN2cv21DetectionBasedTracker21SeparateDetectionWorkD0Ev",
    "_ZN2cv21DetectionBasedTracker21SeparateDetectionWorkD1Ev",
    "_ZN2cv21DetectionBasedTracker21SeparateDetectionWorkD2Ev",
    "_ZN2cv21DetectionBasedTracker3runEv",
    "_ZN2cv21DetectionBasedTracker4stopEv",
    "_ZN2cv21DetectionBasedTracker7processERKNS_3MatE",
    "_ZN2cv21DetectionBasedTracker9addObjectERKNS_5Rect_IiEE",
    "_ZN2cv21DetectionBasedTrackerC1ENS_3PtrINS0_9IDetectorEEES3_RKNS0_10ParametersE",
    "_ZN2cv21DetectionBasedTrackerC2ENS_3PtrINS0_9IDetectorEEES3_RKNS0_10ParametersE",
    "_ZN2cv21DetectionBasedTrackerD0Ev",
    "_ZN2cv21DetectionBasedTrackerD1Ev",
    "_ZN2cv21DetectionBasedTrackerD2Ev",
    "_ZN2cv25groupRectangles_meanshiftERSt6vectorINS_5Rect_IiEESaIS2_EERS0_IdSaIdEES8_dNS_5Size_IiEE",
    "_ZN2cv31workcycleObjectDetectorFunctionEPv",
    "_ZN2cv32createFaceDetectionMaskGeneratorEv",
    "_ZN2cv3ocl9objdetect20cascadedetect_oclsrcE",
    "_ZN2cv3ocl9objdetect20objdetect_hog_oclsrcE",
    "_ZN2cv8HOGCache4initEPKNS_13HOGDescriptorERKNS_3MatERKNS_5Size_IiEESA_bSA_",
    "_ZN2cv8HOGCache8getBlockENS_6Point_IiEEPf",
    "_ZN2cv8HOGCacheC1EPKNS_13HOGDescriptorERKNS_3MatERKNS_5Size_IiEESA_bSA_",
    "_ZN2cv8HOGCacheC1Ev",
    "_ZN2cv8HOGCacheC2EPKNS_13HOGDescriptorERKNS_3MatERKNS_5Size_IiEESA_bSA_",
    "_ZN2cv8HOGCacheC2Ev",
    "_ZN2cv8QRDecode12createSplineERSt6vectorIS1_INS_6Point_IfEESaIS3_EESaIS5_EE",
    "_ZN2cv8QRDecode13computeSplineERKSt6vectorIiSaIiEES5_",
    "_ZN2cv8QRDecode15decodingProcessEv",
    "_ZN2cv8QRDecode15getPatternsMaskEv",
    "_ZN2cv8QRDecode16addPointsToSidesEv",
    "_ZN2cv8QRDecode17updatePerspectiveEv",
    "_ZN2cv8QRDecode17versionDefinitionEv",
    "_ZN2cv8QRDecode18computeSidesPointsERKSt6vectorINS_6Point_IiEESaIS3_EE",
    "_ZN2cv8QRDecode18samplingForVersionEv",
    "_ZN2cv8QRDecode19distancePointToLineENS_6Point_IfEES2_S2_",
    "_ZN2cv8QRDecode20completeAndSortSidesEv",
    "_ZN2cv8QRDecode20computeClosestPointsERKSt6vectorINS_6Point_IiEESaIS3_EE",
    "_ZN2cv8QRDecode20findClosestZeroPointENS_6Point_IfEE",
    "_ZN2cv8QRDecode20findPatternsContoursERSt6vectorIS1_INS_6Point_IiEESaIS3_EESaIS5_EE",
    "_ZN2cv8QRDecode21curvedDecodingProcessEv",
    "_ZN2cv8QRDecode21findAndAddStablePointEv",
    "_ZN2cv8QRDecode21getPointsInsideQRCodeERKSt6vectorINS_6Point_IfEESaIS3_EE",
    "_ZN2cv8QRDecode22divideIntoEvenSegmentsERSt6vectorIS1_INS_6Point_IfEESaIS3_EESaIS5_EE",
    "_ZN2cv8QRDecode22findIndexesCurvedSidesEv",
    "_ZN2cv8QRDecode22preparingCurvedQRCodesEv",
    "_ZN2cv8QRDecode23straightDecodingProcessEv",
    "_ZN2cv8QRDecode23straightenQRCodeInPartsEv",
    "_ZN2cv8QRDecode26findPatternsVerticesPointsERSt6vectorIS1_INS_6Point_IiEESaIS3_EESaIS5_EE",
    "_ZN2cv8QRDecode26getPointsNearUnstablePointERKSt6vectorINS_6Point_IiEESaIS3_EEiii",
    "_ZN2cv8QRDecode27computePatternsAddingPointsERSt3mapIiSt6vectorINS_6Point_IiEESaIS4_EESt4lessIiESaISt4pairIKiS6_EEE",
    "_ZN2cv8QRDecode28findTempPatternsAddingPointsERSt6vectorISt4pairIiS1_INS_6Point_IiEESaIS4_EEESaIS7_EE",
    "_ZN2cv8QRDecode32findIncompleteIndexesCurvedSidesEv",
    "_ZN2cv8QRDecode4initERKNS_3MatERKSt6vectorINS_6Point_IfEESaIS6_EE",
    "_ZN2cv8QRDetect12localizationEv",
    "_ZN2cv8QRDetect14fixationPointsERSt6vectorINS_6Point_IfEESaIS3_EE",
    "_ZN2cv8QRDetect15testByPassRouteESt6vectorINS_6Point_IfEESaIS3_EEii",
    "_ZN2cv8QRDetect16getQuadrilateralESt6vectorINS_6Point_IfEESaIS3_EE",
    "_ZN2cv8QRDetect20extractVerticalLinesERKSt6vectorINS_3VecIdLi3EEESaIS3_EEd",
    "_ZN2cv8QRDetect21searchHorizontalLinesEv",
    "_ZN2cv8QRDetect21separateVerticalLinesERKSt6vectorINS_3VecIdLi3EEESaIS3_EE",
    "_ZN2cv8QRDetect27computeTransformationPointsEv",
    "_ZN2cv8QRDetect4initERKNS_3MatEdd",
    "_ZN2cv8haar_cvt7convertERKNS_8FileNodeERNS_11FileStorageE",
    "_ZNK2cv12LBPEvaluator5cloneEv",
    "_ZNK2cv13HOGDescriptor11getWinSigmaEv",
    "_ZNK2cv13HOGDescriptor15computeGradientERKNS_11_InputArrayERKNS_17_InputOutputArrayES6_NS_5Size_IiEES8_",
    "_ZNK2cv13HOGDescriptor15groupRectanglesERSt6vectorINS_5Rect_IiEESaIS3_EERS1_IdSaIdEEid",
    "_ZNK2cv13HOGDescriptor16detectMultiScaleERKNS_11_InputArrayERSt6vectorINS_5Rect_IiEESaIS6_EERS4_IdSaIdEEdNS_5Size_IiEESE_ddb",
    "_ZNK2cv13HOGDescriptor16detectMultiScaleERKNS_11_InputArrayERSt6vectorINS_5Rect_IiEESaIS6_EEdNS_5Size_IiEESB_ddb",
    "_ZNK2cv13HOGDescriptor17checkDetectorSizeEv",
    "_ZNK2cv13HOGDescriptor17getDescriptorSizeEv",
    "_ZNK2cv13HOGDescriptor19detectMultiScaleROIERKNS_11_InputArrayERSt6vectorINS_5Rect_IiEESaIS6_EERS4_INS_12DetectionROIESaISA_EEdi",
    "_ZNK2cv13HOGDescriptor4saveERKNSt7__cxx1112basic_stringIcSt11char_traitsIcESaIcEEES8_",
    "_ZNK2cv13HOGDescriptor5writeERNS_11FileStorageERKNSt7__cxx1112basic_stringIcSt11char_traitsIcESaIcEEE",
    "_ZNK2cv13HOGDescriptor6copyToERS0_",
    "_ZNK2cv13HOGDescriptor6detectERKNS_11_InputArrayERSt6vectorINS_6Point_IiEESaIS6_EERS4_IdSaIdEEdNS_5Size_IiEESE_RKS8_",
    "_ZNK2cv13HOGDescriptor6detectERKNS_11_InputArrayERSt6vectorINS_6Point_IiEESaIS6_EEdNS_5Size_IiEESB_RKS8_",
    "_ZNK2cv13HOGDescriptor7computeERKNS_11_InputArrayERSt6vectorIfSaIfEENS_5Size_IiEES9_RKS4_INS_6Point_IiEESaISB_EE",
    "_ZNK2cv13HOGDescriptor9detectROIERKNS_11_InputArrayERKSt6vectorINS_6Point_IiEESaIS6_EERS8_RS4_IdSaIdEEdNS_5Size_IiEESG_",
    "_ZNK2cv13HaarEvaluator11getNormRectEv",
    "_ZNK2cv13HaarEvaluator16getSquaresOffsetEv",
    "_ZNK2cv13HaarEvaluator5cloneEv",
    "_ZNK2cv13QRDetectMulti13compareSquareclERKNS_3VecIiLi3EEES5_",
    "_ZNK2cv13QRDetectMulti14ParallelSearchclERKNS_5RangeE",
    "_ZNK2cv14QRCodeDetector11decodeMultiERKNS_11_InputArrayES3_RSt6vectorINSt7__cxx1112basic_stringIcSt11char_traitsIcESaIcEEESaISA_EERKNS_12_OutputArrayE",
    "_ZNK2cv14QRCodeDetector11detectMultiERKNS_11_InputArrayERKNS_12_OutputArrayE",
    "_ZNK2cv14QRCodeDetector20detectAndDecodeMultiERKNS_11_InputArrayERSt6vectorINSt7__cxx1112basic_stringIcSt11char_traitsIcESaIcEEESaISA_EERKNS_12_OutputArrayESG_",
    "_ZNK2cv14QRCodeDetector6detectERKNS_11_InputArrayERKNS_12_OutputArrayE",
    "_ZNK2cv16FeatureEvaluator14getFeatureTypeEv",
    "_ZNK2cv16FeatureEvaluator5cloneEv",
    "_ZNK2cv16FeatureEvaluator7calcCatEi",
    "_ZNK2cv16FeatureEvaluator7calcOrdEi",
    "_ZNK2cv17CascadeClassifier14getFeatureTypeEv",
    "_ZNK2cv17CascadeClassifier18isOldFormatCascadeEv",
    "_ZNK2cv17CascadeClassifier21getOriginalWindowSizeEv",
    "_ZNK2cv17CascadeClassifier5emptyEv",
    "_ZNK2cv21CascadeClassifierImpl14getFeatureTypeEv",
    "_ZNK2cv21CascadeClassifierImpl18isOldFormatCascadeEv",
    "_ZNK2cv21CascadeClassifierImpl21getOriginalWindowSizeEv",
    "_ZNK2cv21CascadeClassifierImpl5emptyEv",
    "_ZNK2cv21DetectionBasedTracker10getObjectsERSt6vectorINS0_9ExtObjectESaIS2_EE",
    "_ZNK2cv21DetectionBasedTracker10getObjectsERSt6vectorINS_5Rect_IiEESaIS3_EE",
    "_ZNK2cv21DetectionBasedTracker10getObjectsERSt6vectorISt4pairINS_5Rect_IiEEiESaIS5_EE",
    "_ZNK2cv21DetectionBasedTracker13getParametersEv",
    "_ZNK2cv21DetectionBasedTracker31calcTrackedObjectPositionToShowEi",
    "_ZNK2cv21DetectionBasedTracker31calcTrackedObjectPositionToShowEiRNS0_12ObjectStatusE",
    "_ZNK2cv8HOGCache14windowsInImageERKNS_5Size_IiEES4_",
    "_ZNK2cv8HOGCache23normalizeBlockHistogramEPf",
    "_ZNK2cv8HOGCache9getWindowERKNS_5Size_IiEES4_i",
    "_ZNSt6vectorIN2cv12LBPEvaluator10OptFeatureESaIS2_EE17_M_default_appendEj",
    "_ZNSt6vectorIN2cv12LBPEvaluator7FeatureESaIS2_EE17_M_default_appendEj",
    "_ZNSt6vectorIN2cv12LineIteratorESaIS1_EE17_M_realloc_insertIJS1_EEEvN9__gnu_cxx17__normal_iteratorIPS1_S3_EEDpOT_",
    "_ZNSt6vectorIN2cv13HaarEvaluator10OptFeatureESaIS2_EE17_M_default_appendEj",
    "_ZNSt6vectorIN2cv13HaarEvaluator7FeatureESaIS2_EE17_M_default_appendEj",
    "_ZNSt6vectorIN2cv16FeatureEvaluator9ScaleDataESaIS2_EE17_M_default_appendEj",
    "_ZNSt6vectorIN2cv21CascadeClassifierImpl4Data5DTreeESaIS3_EE17_M_realloc_insertIJRKS3_EEEvN9__gnu_cxx17__normal_iteratorIPS3_S5_EEDpOT_",
    "_ZNSt6vectorIN2cv21CascadeClassifierImpl4Data5StageESaIS3_EE17_M_realloc_insertIJRKS3_EEEvN9__gnu_cxx17__normal_iteratorIPS3_S5_EEDpOT_",
    "_ZNSt6vectorIN2cv21CascadeClassifierImpl4Data5StumpESaIS3_EE17_M_realloc_insertIJS3_EEEvN9__gnu_cxx17__normal_iteratorIPS3_S5_EEDpOT_",
    "_ZNSt6vectorIN2cv21CascadeClassifierImpl4Data9DTreeNodeESaIS3_EE17_M_realloc_insertIJRKS3_EEEvN9__gnu_cxx17__normal_iteratorIPS3_S5_EEDpOT_",
    "_ZNSt6vectorIN2cv21DetectionBasedTracker13TrackedObjectESaIS2_EE12emplace_backIJS2_EEERS2_DpOT_",
    "_ZNSt6vectorIN2cv21DetectionBasedTracker13TrackedObjectESaIS2_EE17_M_realloc_insertIJS2_EEEvN9__gnu_cxx17__normal_iteratorIPS2_S4_EEDpOT_",
    "_ZNSt6vectorIN2cv21DetectionBasedTracker9ExtObjectESaIS2_EE17_M_realloc_insertIJS2_EEEvN9__gnu_cxx17__normal_iteratorIPS2_S4_EEDpOT_",
    "_ZNSt6vectorIN2cv3MatESaIS1_EE17_M_realloc_insertIJRKS1_EEEvN9__gnu_cxx17__normal_iteratorIPS1_S3_EEDpOT_",
    "_ZNSt6vectorIN2cv3VecIdLi3EEESaIS2_EE17_M_realloc_insertIJRKS2_EEEvN9__gnu_cxx17__normal_iteratorIPS2_S4_EEDpOT_",
    "_ZNSt6vectorIN2cv3VecIiLi3EEESaIS2_EE17_M_default_appendEj",
    "_ZNSt6vectorIN2cv4UMatESaIS1_EE17_M_realloc_insertIJRKS1_EEEvN9__gnu_cxx17__normal_iteratorIPS1_S3_EEDpOT_",
    "_ZNSt6vectorIN2cv5Rect_IfEESaIS2_EE17_M_realloc_insertIJRKS2_EEEvN9__gnu_cxx17__normal_iteratorIPS2_S4_EEDpOT_",
    "_ZNSt6vectorIN2cv5Rect_IiEESaIS2_EE12emplace_backIJS2_EEERS2_DpOT_",
    "_ZNSt6vectorIN2cv5Rect_IiEESaIS2_EE17_M_default_appendEj",
    "_ZNSt6vectorIN2cv5Rect_IiEESaIS2_EE17_M_realloc_insertIJRKS2_EEEvN9__gnu_cxx17__normal_iteratorIPS2_S4_EEDpOT_",
    "_ZNSt6vectorIN2cv5Rect_IiEESaIS2_EE17_M_realloc_insertIJS2_EEEvN9__gnu_cxx17__normal_iteratorIPS2_S4_EEDpOT_",
    "_ZNSt6vectorIN2cv5Size_IiEESaIS2_EE17_M_realloc_insertIJRKS2_EEEvN9__gnu_cxx17__normal_iteratorIPS2_S4_EEDpOT_",
    "_ZNSt6vectorIN2cv6Point_IfEESaIS2_EE17_M_realloc_insertIJRKS2_EEEvN9__gnu_cxx17__normal_iteratorIPS2_S4_EEDpOT_",
    "_ZNSt6vectorIN2cv6Point_IfEESaIS2_EE17_M_realloc_insertIJS2_EEEvN9__gnu_cxx17__normal_iteratorIPS2_S4_EEDpOT_",
    "_ZNSt6vectorIN2cv6Point_IfEESaIS2_EEaSERKS4_",
    "_ZNSt6vectorIN2cv6Point_IiEESaIS2_EE17_M_realloc_insertIJRKS2_EEEvN9__gnu_cxx17__normal_iteratorIPS2_S4_EEDpOT_",
    "_ZNSt6vectorIN2cv6Point_IiEESaIS2_EE17_M_realloc_insertIJS2_EEEvN9__gnu_cxx17__normal_iteratorIPS2_S4_EEDpOT_",
    "_ZNSt6vectorIN2cv6Point_IiEESaIS2_EE6insertEN9__gnu_cxx17__normal_iteratorIPKS2_S4_EERS7_",
    "_ZNSt6vectorIN2cv6Point_IiEESaIS2_EE8_M_eraseEN9__gnu_cxx17__normal_iteratorIPS2_S4_EE",
    "_ZNSt6vectorIN2cv7Point3_IdEESaIS2_EE17_M_default_appendEj",
    "_ZNSt6vectorIN2cv7Point3_IdEESaIS2_EE17_M_realloc_insertIJRKS2_EEEvN9__gnu_cxx17__normal_iteratorIPS2_S4_EEDpOT_",
    "_ZNSt6vectorIN2cv8HOGCache7PixDataESaIS2_EE17_M_default_appendEj",
    "_ZNSt6vectorIN2cv8HOGCache9BlockDataESaIS2_EE17_M_default_appendEj",
    "_ZNSt6vectorIN2cv8haar_cvt11HaarFeatureESaIS2_EE17_M_realloc_insertIJRKS2_EEEvN9__gnu_cxx17__normal_iteratorIPS2_S4_EEDpOT_",
    "_ZNSt6vectorIN2cv8haar_cvt14HaarClassifierESaIS2_EE17_M_default_appendEj",
    "_ZNSt6vectorIN2cv8haar_cvt18HaarClassifierNodeESaIS2_EE17_M_realloc_insertIJRKS2_EEEvN9__gnu_cxx17__normal_iteratorIPS2_S4_EEDpOT_",
    "_ZNSt6vectorINSt7__cxx1112basic_stringIcSt11char_traitsIcESaIcEEESaIS5_EE17_M_realloc_insertIJRKS5_EEEvN9__gnu_cxx17__normal_iteratorIPS5_S7_EEDpOT_",
    "_ZNSt6vectorIS_IN2cv6Point_IfEESaIS2_EESaIS4_EE17_M_default_appendEj",
    "_ZNSt6vectorIS_IN2cv6Point_IfEESaIS2_EESaIS4_EE17_M_realloc_insertIJRKS4_EEEvN9__gnu_cxx17__normal_iteratorIPS4_S6_EEDpOT_",
    "_ZNSt6vectorIS_IN2cv6Point_IiEESaIS2_EESaIS4_EE17_M_realloc_insertIJRKS4_EEEvN9__gnu_cxx17__normal_iteratorIPS4_S6_EEDpOT_",
    "_ZNSt6vectorIS_IhSaIhEESaIS1_EE17_M_realloc_insertIJRKS1_EEEvN9__gnu_cxx17__normal_iteratorIPS1_S3_EEDpOT_",
    "_ZNSt6vectorISt4pairIN2cv5Rect_IiEEiESaIS4_EE17_M_realloc_insertIJS4_EEEvN9__gnu_cxx17__normal_iteratorIPS4_S6_EEDpOT_",
    "_ZNSt6vectorISt4pairIiS_IN2cv6Point_IiEESaIS3_EEESaIS6_EE17_M_realloc_insertIJS6_EEEvN9__gnu_cxx17__normal_iteratorIPS6_S8_EEDpOT_",
    "_ZNSt6vectorISt4pairIidESaIS1_EE17_M_realloc_insertIJS1_EEEvN9__gnu_cxx17__normal_iteratorIPS1_S3_EEDpOT_",
    "_ZNSt6vectorISt4pairIjN2cv6Point_IiEEESaIS4_EE17_M_realloc_insertIJS4_EEEvN9__gnu_cxx17__normal_iteratorIPS4_S6_EEDpOT_",
    "_ZNSt6vectorISt4pairIjdESaIS1_EE17_M_realloc_insertIJS1_EEEvN9__gnu_cxx17__normal_iteratorIPS1_S3_EEDpOT_",
    "_ZNSt6vectorIdSaIdEE17_M_default_appendEj",
    "_ZNSt6vectorIdSaIdEE17_M_realloc_insertIJRKdEEEvN9__gnu_cxx17__normal_iteratorIPdS1_EEDpOT_",
    "_ZNSt6vectorIdSaIdEE17_M_realloc_insertIJdEEEvN9__gnu_cxx17__normal_iteratorIPdS1_EEDpOT_",
    "_ZNSt6vectorIfSaIfEE17_M_default_appendEj",
    "_ZNSt6vectorIfSaIfEE17_M_realloc_insertIJRKfEEEvN9__gnu_cxx17__normal_iteratorIPfS1_EEDpOT_",
    "_ZNSt6vectorIfSaIfEE17_M_realloc_insertIJfEEEvN9__gnu_cxx17__normal_iteratorIPfS1_EEDpOT_",
    "_ZNSt6vectorIfSaIfEE7reserveEj",
    "_ZNSt6vectorIhSaIhEE7reserveEj",
    "_ZNSt6vectorIiSaIiEE14_M_fill_insertEN9__gnu_cxx17__normal_iteratorIPiS1_EEjRKi",
    "_ZNSt6vectorIiSaIiEE17_M_default_appendEj",
    "_ZNSt6vectorIiSaIiEE17_M_realloc_insertIJRKiEEEvN9__gnu_cxx17__normal_iteratorIPiS1_EEDpOT_",
    "_ZNSt6vectorIiSaIiEE17_M_realloc_insertIJiEEEvN9__gnu_cxx17__normal_iteratorIPiS1_EEDpOT_",
    "_ZNSt6vectorIjSaIjEE17_M_realloc_insertIJRKjEEEvN9__gnu_cxx17__normal_iteratorIPjS1_EEDpOT_",
    "_ZNSt6vectorIjSaIjEE17_M_realloc_insertIJjEEEvN9__gnu_cxx17__normal_iteratorIPjS1_EEDpOT_",
    "_ZNSt8_Rb_treeIiSt4pairIKiSt6vectorIN2cv6Point_IiEESaIS5_EEESt10_Select1stIS8_ESt4lessIiESaIS8_EE17_M_emplace_uniqueIJS0_IiS7_EEEES0_ISt17_Rb_tree_iteratorIS8_EbEDpOT_",
    "_ZNSt8_Rb_treeIiSt4pairIKiSt6vectorIN2cv6Point_IiEESaIS5_EEESt10_Select1stIS8_ESt4lessIiESaIS8_EE24_M_get_insert_unique_posERS1_",
    "_ZSt13__adjust_heapIN9__gnu_cxx17__normal_iteratorIPN2cv3VecIiLi3EEESt6vectorIS4_SaIS4_EEEEiS4_NS0_5__ops15_Iter_comp_iterINS2_13QRDetectMulti13compareSquareEEEEvT_T0_SG_T1_T2_",
    "_ZSt16__insertion_sortIN9__gnu_cxx17__normal_iteratorIPN2cv3VecIiLi3EEESt6vectorIS4_SaIS4_EEEENS0_5__ops15_Iter_comp_iterINS2_13QRDetectMulti13compareSquareEEEEvT_SF_T0_",
    "_ZSt16__introsort_loopIN9__gnu_cxx17__normal_iteratorIPN2cv3VecIiLi3EEESt6vectorIS4_SaIS4_EEEEiNS0_5__ops15_Iter_comp_iterINS2_13QRDetectMulti13compareSquareEEEEvT_SF_T0_T1_",
    "_ZSt16__introsort_loopIN9__gnu_cxx17__normal_iteratorIPN2cv6Point_IfEESt6vectorIS4_SaIS4_EEEEiNS0_5__ops15_Iter_comp_iterINS2_13QRDetectMulti17compareDistanse_yEEEEvT_SF_T0_T1_",
    "_ZSt16__introsort_loopIN9__gnu_cxx17__normal_iteratorIPN2cv6Point_IiEESt6vectorIS4_SaIS4_EEEEiNS0_5__ops15_Iter_comp_iterINS2_8QRDecode13sortPointsByXEEEEvT_SF_T0_T1_",
    "_ZSt16__introsort_loopIN9__gnu_cxx17__normal_iteratorIPN2cv6Point_IiEESt6vectorIS4_SaIS4_EEEEiNS0_5__ops15_Iter_comp_iterINS2_8QRDecode13sortPointsByYEEEEvT_SF_T0_T1_",
    "_ZSt16__introsort_loopIN9__gnu_cxx17__normal_iteratorIPSt4pairIidESt6vectorIS3_SaIS3_EEEEiNS0_5__ops15_Iter_comp_iterIN2cv8QRDecode11sortPairAscEEEEvT_SF_T0_T1_",
    "_ZSt16__introsort_loopIN9__gnu_cxx17__normal_iteratorIPSt4pairIjdESt6vectorIS3_SaIS3_EEEEiNS0_5__ops15_Iter_comp_iterIN2cv8QRDecode12sortPairDescEEEEvT_SF_T0_T1_",
    "_ZSt25__unguarded_linear_insertIN9__gnu_cxx17__normal_iteratorIPN2cv3VecIiLi3EEESt6vectorIS4_SaIS4_EEEENS0_5__ops14_Val_comp_iterINS2_13QRDetectMulti13compareSquareEEEEvT_T0_",
    "_ZTIN2cv10HOGInvokerE",
    "_ZTIN2cv12LBPEvaluatorE",
    "_ZTIN2cv13HOGDescriptorE",
    "_ZTIN2cv13HaarEvaluatorE",
    "_ZTIN2cv13QRCodeEncoderE",
    "_ZTIN2cv13QRDetectMulti14ParallelSearchE",
    "_ZTIN2cv14FaceDetectorYNE",
    "_ZTIN2cv14HOGConfInvokerE",
    "_ZTIN2cv16FaceRecognizerSFE",
    "_ZTIN2cv16FeatureEvaluatorE",
    "_ZTIN2cv17QRCodeEncoderImplE",
    "_ZTIN2cv18FaceDetectorYNImplE",
    "_ZTIN2cv20FaceRecognizerSFImplE",
    "_ZTIN2cv21BaseCascadeClassifierE",
    "_ZTIN2cv21CascadeClassifierImplE",
    "_ZTIN2cv21DetectionBasedTracker21SeparateDetectionWorkE",
    "_ZTIN2cv21DetectionBasedTrackerE",
    "_ZTIN2cv21ParallelDecodeProcessE",
    "_ZTIN2cv24CascadeClassifierInvokerE",
    "_ZTIN2cv8HOGCacheE",
    "_ZTINSt6thread11_State_implINS_8_InvokerISt5tupleIJPFPvS3_ES3_EEEEEE",
    "_ZTISt11_Mutex_baseILN9__gnu_cxx12_Lock_policyE2EE",
    "_ZTISt15_Sp_counted_ptrIPN2cv12LBPEvaluatorELN9__gnu_cxx12_Lock_policyE2EE",
    "_ZTISt15_Sp_counted_ptrIPN2cv13HaarEvaluatorELN9__gnu_cxx12_Lock_policyE2EE",
    "_ZTISt15_Sp_counted_ptrIPN2cv14QRCodeDetector4ImplELN9__gnu_cxx12_Lock_policyE2EE",
    "_ZTISt15_Sp_counted_ptrIPN2cv21DetectionBasedTracker21SeparateDetectionWorkELN9__gnu_cxx12_Lock_policyE2EE",
    "_ZTISt16_Sp_counted_baseILN9__gnu_cxx12_Lock_policyE2EE",
    "_ZTISt19_Sp_make_shared_tag",
    "_ZTISt23_Sp_counted_ptr_inplaceIN2cv11BlockParamsESaIS1_ELN9__gnu_cxx12_Lock_policyE2EE",
    "_ZTISt23_Sp_counted_ptr_inplaceIN2cv11VersionInfoESaIS1_ELN9__gnu_cxx12_Lock_policyE2EE",
    "_ZTISt23_Sp_counted_ptr_inplaceIN2cv12LBPEvaluatorESaIS1_ELN9__gnu_cxx12_Lock_policyE2EE",
    "_ZTISt23_Sp_counted_ptr_inplaceIN2cv13HaarEvaluatorESaIS1_ELN9__gnu_cxx12_Lock_policyE2EE",
    "_ZTISt23_Sp_counted_ptr_inplaceIN2cv17QRCodeEncoderImplESaIS1_ELN9__gnu_cxx12_Lock_policyE2EE",
    "_ZTISt23_Sp_counted_ptr_inplaceIN2cv18FaceDetectorYNImplESaIS1_ELN9__gnu_cxx12_Lock_policyE2EE",
    "_ZTISt23_Sp_counted_ptr_inplaceIN2cv20FaceRecognizerSFImplESaIS1_ELN9__gnu_cxx12_Lock_policyE2EE",
    "_ZTISt23_Sp_counted_ptr_inplaceIN2cv21CascadeClassifierImplESaIS1_ELN9__gnu_cxx12_Lock_policyE2EE",
    "_ZTISt23_Sp_counted_ptr_inplaceISt6vectorIN2cv12LBPEvaluator10OptFeatureESaIS3_EESaIS5_ELN9__gnu_cxx12_Lock_policyE2EE",
    "_ZTISt23_Sp_counted_ptr_inplaceISt6vectorIN2cv12LBPEvaluator7FeatureESaIS3_EESaIS5_ELN9__gnu_cxx12_Lock_policyE2EE",
    "_ZTISt23_Sp_counted_ptr_inplaceISt6vectorIN2cv13HaarEvaluator10OptFeatureESaIS3_EESaIS5_ELN9__gnu_cxx12_Lock_policyE2EE",
    "_ZTISt23_Sp_counted_ptr_inplaceISt6vectorIN2cv13HaarEvaluator7FeatureESaIS3_EESaIS5_ELN9__gnu_cxx12_Lock_policyE2EE",
    "_ZTISt23_Sp_counted_ptr_inplaceISt6vectorIN2cv16FeatureEvaluator9ScaleDataESaIS3_EESaIS5_ELN9__gnu_cxx12_Lock_policyE2EE",
    "_ZTSN2cv10HOGInvokerE",
    "_ZTSN2cv12LBPEvaluatorE",
    "_ZTSN2cv13HOGDescriptorE",
    "_ZTSN2cv13HaarEvaluatorE",
    "_ZTSN2cv13QRCodeEncoderE",
    "_ZTSN2cv13QRDetectMulti14ParallelSearchE",
    "_ZTSN2cv14FaceDetectorYNE",
    "_ZTSN2cv14HOGConfInvokerE",
    "_ZTSN2cv16FaceRecognizerSFE",
    "_ZTSN2cv16FeatureEvaluatorE",
    "_ZTSN2cv17QRCodeEncoderImplE",
    "_ZTSN2cv18FaceDetectorYNImplE",
    "_ZTSN2cv20FaceRecognizerSFImplE",
    "_ZTSN2cv21BaseCascadeClassifierE",
    "_ZTSN2cv21CascadeClassifierImplE",
    "_ZTSN2cv21DetectionBasedTracker21SeparateDetectionWorkE",
    "_ZTSN2cv21DetectionBasedTrackerE",
    "_ZTSN2cv21ParallelDecodeProcessE",
    "_ZTSN2cv24CascadeClassifierInvokerE",
    "_ZTSN2cv8HOGCacheE",
    "_ZTSNSt6thread11_State_implINS_8_InvokerISt5tupleIJPFPvS3_ES3_EEEEEE",
    "_ZTSSt11_Mutex_baseILN9__gnu_cxx12_Lock_policyE2EE",
    "_ZTSSt15_Sp_counted_ptrIPN2cv12LBPEvaluatorELN9__gnu_cxx12_Lock_policyE2EE",
    "_ZTSSt15_Sp_counted_ptrIPN2cv13HaarEvaluatorELN9__gnu_cxx12_Lock_policyE2EE",
    "_ZTSSt15_Sp_counted_ptrIPN2cv14QRCodeDetector4ImplELN9__gnu_cxx12_Lock_policyE2EE",
    "_ZTSSt15_Sp_counted_ptrIPN2cv21DetectionBasedTracker21SeparateDetectionWorkELN9__gnu_cxx12_Lock_policyE2EE",
    "_ZTSSt16_Sp_counted_baseILN9__gnu_cxx12_Lock_policyE2EE",
    "_ZTSSt19_Sp_make_shared_tag",
    "_ZTSSt23_Sp_counted_ptr_inplaceIN2cv11BlockParamsESaIS1_ELN9__gnu_cxx12_Lock_policyE2EE",
    "_ZTSSt23_Sp_counted_ptr_inplaceIN2cv11VersionInfoESaIS1_ELN9__gnu_cxx12_Lock_policyE2EE",
    "_ZTSSt23_Sp_counted_ptr_inplaceIN2cv12LBPEvaluatorESaIS1_ELN9__gnu_cxx12_Lock_policyE2EE",
    "_ZTSSt23_Sp_counted_ptr_inplaceIN2cv13HaarEvaluatorESaIS1_ELN9__gnu_cxx12_Lock_policyE2EE",
    "_ZTSSt23_Sp_counted_ptr_inplaceIN2cv17QRCodeEncoderImplESaIS1_ELN9__gnu_cxx12_Lock_policyE2EE",
    "_ZTSSt23_Sp_counted_ptr_inplaceIN2cv18FaceDetectorYNImplESaIS1_ELN9__gnu_cxx12_Lock_policyE2EE",
    "_ZTSSt23_Sp_counted_ptr_inplaceIN2cv20FaceRecognizerSFImplESaIS1_ELN9__gnu_cxx12_Lock_policyE2EE",
    "_ZTSSt23_Sp_counted_ptr_inplaceIN2cv21CascadeClassifierImplESaIS1_ELN9__gnu_cxx12_Lock_policyE2EE",
    "_ZTSSt23_Sp_counted_ptr_inplaceISt6vectorIN2cv12LBPEvaluator10OptFeatureESaIS3_EESaIS5_ELN9__gnu_cxx12_Lock_policyE2EE",
    "_ZTSSt23_Sp_counted_ptr_inplaceISt6vectorIN2cv12LBPEvaluator7FeatureESaIS3_EESaIS5_ELN9__gnu_cxx12_Lock_policyE2EE",
    "_ZTSSt23_Sp_counted_ptr_inplaceISt6vectorIN2cv13HaarEvaluator10OptFeatureESaIS3_EESaIS5_ELN9__gnu_cxx12_Lock_policyE2EE",
    "_ZTSSt23_Sp_counted_ptr_inplaceISt6vectorIN2cv13HaarEvaluator7FeatureESaIS3_EESaIS5_ELN9__gnu_cxx12_Lock_policyE2EE",
    "_ZTSSt23_Sp_counted_ptr_inplaceISt6vectorIN2cv16FeatureEvaluator9ScaleDataESaIS3_EESaIS5_ELN9__gnu_cxx12_Lock_policyE2EE",
    "_ZTVN2cv10HOGInvokerE",
    "_ZTVN2cv12LBPEvaluatorE",
    "_ZTVN2cv13HOGDescriptorE",
    "_ZTVN2cv13HaarEvaluatorE",
    "_ZTVN2cv13QRCodeEncoderE",
    "_ZTVN2cv13QRDetectMulti14ParallelSearchE",
    "_ZTVN2cv14HOGConfInvokerE",
    "_ZTVN2cv16FeatureEvaluatorE",
    "_ZTVN2cv17QRCodeEncoderImplE",
    "_ZTVN2cv18FaceDetectorYNImplE",
    "_ZTVN2cv20FaceRecognizerSFImplE",
    "_ZTVN2cv21BaseCascadeClassifierE",
    "_ZTVN2cv21CascadeClassifierImplE",
    "_ZTVN2cv21DetectionBasedTracker21SeparateDetectionWorkE",
    "_ZTVN2cv21DetectionBasedTrackerE",
    "_ZTVN2cv21ParallelDecodeProcessE",
    "_ZTVN2cv24CascadeClassifierInvokerE",
    "_ZTVN2cv8HOGCacheE",
    "_ZTVNSt6thread11_State_implINS_8_InvokerISt5tupleIJPFPvS3_ES3_EEEEEE",
    "_ZTVSt15_Sp_counted_ptrIPN2cv12LBPEvaluatorELN9__gnu_cxx12_Lock_policyE2EE",
    "_ZTVSt15_Sp_counted_ptrIPN2cv13HaarEvaluatorELN9__gnu_cxx12_Lock_policyE2EE",
    "_ZTVSt15_Sp_counted_ptrIPN2cv14QRCodeDetector4ImplELN9__gnu_cxx12_Lock_policyE2EE",
    "_ZTVSt15_Sp_counted_ptrIPN2cv21DetectionBasedTracker21SeparateDetectionWorkELN9__gnu_cxx12_Lock_policyE2EE",
    "_ZTVSt23_Sp_counted_ptr_inplaceIN2cv11BlockParamsESaIS1_ELN9__gnu_cxx12_Lock_policyE2EE",
    "_ZTVSt23_Sp_counted_ptr_inplaceIN2cv11VersionInfoESaIS1_ELN9__gnu_cxx12_Lock_policyE2EE",
    "_ZTVSt23_Sp_counted_ptr_inplaceIN2cv12LBPEvaluatorESaIS1_ELN9__gnu_cxx12_Lock_policyE2EE",
    "_ZTVSt23_Sp_counted_ptr_inplaceIN2cv13HaarEvaluatorESaIS1_ELN9__gnu_cxx12_Lock_policyE2EE",
    "_ZTVSt23_Sp_counted_ptr_inplaceIN2cv17QRCodeEncoderImplESaIS1_ELN9__gnu_cxx12_Lock_policyE2EE",
    "_ZTVSt23_Sp_counted_ptr_inplaceIN2cv18FaceDetectorYNImplESaIS1_ELN9__gnu_cxx12_Lock_policyE2EE",
    "_ZTVSt23_Sp_counted_ptr_inplaceIN2cv20FaceRecognizerSFImplESaIS1_ELN9__gnu_cxx12_Lock_policyE2EE",
    "_ZTVSt23_Sp_counted_ptr_inplaceIN2cv21CascadeClassifierImplESaIS1_ELN9__gnu_cxx12_Lock_policyE2EE",
    "_ZTVSt23_Sp_counted_ptr_inplaceISt6vectorIN2cv12LBPEvaluator10OptFeatureESaIS3_EESaIS5_ELN9__gnu_cxx12_Lock_policyE2EE",
    "_ZTVSt23_Sp_counted_ptr_inplaceISt6vectorIN2cv12LBPEvaluator7FeatureESaIS3_EESaIS5_ELN9__gnu_cxx12_Lock_policyE2EE",
    "_ZTVSt23_Sp_counted_ptr_inplaceISt6vectorIN2cv13HaarEvaluator10OptFeatureESaIS3_EESaIS5_ELN9__gnu_cxx12_Lock_policyE2EE",
    "_ZTVSt23_Sp_counted_ptr_inplaceISt6vectorIN2cv13HaarEvaluator7FeatureESaIS3_EESaIS5_ELN9__gnu_cxx12_Lock_policyE2EE",
    "_ZTVSt23_Sp_counted_ptr_inplaceISt6vectorIN2cv16FeatureEvaluator9ScaleDataESaIS3_EESaIS5_ELN9__gnu_cxx12_Lock_policyE2EE",
    "_ZZN2cv14predictOrderedINS_13HaarEvaluatorEEEiRNS_21CascadeClassifierImplERNS_3PtrINS_16FeatureEvaluatorEEERdE25__cv_trace_location_fn487",
    "_ZZN2cv14predictOrderedINS_13HaarEvaluatorEEEiRNS_21CascadeClassifierImplERNS_3PtrINS_16FeatureEvaluatorEEERdE31__cv_trace_location_extra_fn487",
    "_ZZN2cv18FaceDetectorYNImpl6detectERKNS_11_InputArrayERKNS_12_OutputArrayEE14__cv_check__96",
    "_ZZN2cv18predictCategoricalINS_12LBPEvaluatorEEEiRNS_21CascadeClassifierImplERNS_3PtrINS_16FeatureEvaluatorEEERdE25__cv_trace_location_fn529",
    "_ZZN2cv18predictCategoricalINS_12LBPEvaluatorEEEiRNS_21CascadeClassifierImplERNS_3PtrINS_16FeatureEvaluatorEEERdE31__cv_trace_location_extra_fn529",
    "_ZZN2cv19predictOrderedStumpINS_13HaarEvaluatorEEEiRNS_21CascadeClassifierImplERNS_3PtrINS_16FeatureEvaluatorEEERdE25__cv_trace_location_fn573",
    "_ZZN2cv19predictOrderedStumpINS_13HaarEvaluatorEEEiRNS_21CascadeClassifierImplERNS_3PtrINS_16FeatureEvaluatorEEERdE31__cv_trace_location_extra_fn573",
    "_ZZN2cv21DetectionBasedTracker13TrackedObject9getNextIdEvE3_id",
    "_ZZN2cv23predictCategoricalStumpINS_12LBPEvaluatorEEEiRNS_21CascadeClassifierImplERNS_3PtrINS_16FeatureEvaluatorEEERdE25__cv_trace_location_fn612",
    "_ZZN2cv23predictCategoricalStumpINS_12LBPEvaluatorEEEiRNS_21CascadeClassifierImplERNS_3PtrINS_16FeatureEvaluatorEEERdE31__cv_trace_location_extra_fn612",
    "_ZZNK2cv14HOGConfInvokerclERKNS_5RangeEE26__cv_trace_location_fn3289",
    "_ZZNK2cv14HOGConfInvokerclERKNS_5RangeEE32__cv_trace_location_extra_fn3289",
    "_ZZNK2cv24CascadeClassifierInvokerclERKNS_5RangeEE26__cv_trace_location_fn1036",
    "_ZZNK2cv24CascadeClassifierInvokerclERKNS_5RangeEE32__cv_trace_location_extra_fn1036",
    "_ZZNSt19_Sp_make_shared_tag5_S_tiEvE5__tag",
    "_ZZNSt8__detail18__to_chars_10_implIjEEvPcjT_E8__digits",
    "quirc_decode",
    "quirc_version_db"
  ]
}